10 256
0 0.031373 0.000000 0.031373 0.000000 0.047059 0.000000 0.007843 0.007843 0.000000 0.000000 0.000000 0.000000 0.015686 0.000000 0.031373 0.000000 0.000000 0.000000 0.015686 0.007843 0.000000 0.000000 1.003922 0.988235 1.011765 0.980392 0.015686 0.023529 0.007843 0.007843 0.000000 0.007843 0.000000 0.023529 0.000000 0.000000 0.517647 1.850980 2.000000 2.000000 2.000000 1.976471 1.992157 0.000000 0.000000 0.031373 0.000000 0.000000 0.007843 0.000000 0.000000 0.533333 2.000000 2.000000 2.000000 0.988235 1.003922 2.000000 2.000000 2.000000 0.007843 0.000000 0.000000 0.015686 0.000000 0.031373 0.000000 1.968627 2.000000 0.980392 0.023529 0.023529 0.000000 0.000000 1.992157 2.000000 1.984314 0.000000 0.023529 0.000000 0.000000 0.000000 0.000000 1.992157 2.000000 0.000000 0.000000 0.000000 0.039216 0.000000 0.000000 1.984314 1.968627 1.058824 0.000000 0.015686 0.000000 0.039216 0.007843 2.000000 1.968627 0.000000 0.054902 0.000000 0.000000 0.007843 0.015686 0.964706 2.000000 0.988235 0.007843 0.000000 0.000000 0.000000 1.011765 1.960784 1.043137 0.007843 0.000000 0.000000 0.000000 0.023529 0.000000 1.019608 1.984314 1.050980 0.000000 0.000000 0.007843 0.000000 0.988235 2.000000 1.003922 0.015686 0.000000 0.000000 0.000000 0.023529 0.000000 0.007843 2.000000 2.000000 0.000000 0.000000 0.015686 0.007843 0.000000 1.992157 1.992157 0.000000 0.047059 0.000000 0.000000 0.000000 0.000000 0.015686 1.968627 1.960784 0.015686 0.000000 0.000000 0.023529 0.000000 1.976471 2.000000 0.000000 0.000000 0.000000 0.000000 0.000000 0.031373 0.000000 2.000000 2.000000 0.000000 0.000000 0.015686 0.000000 0.007843 1.976471 2.000000 0.000000 0.000000 0.023529 0.023529 0.000000 0.000000 1.066667 1.952941 2.000000 0.000000 0.015686 0.000000 0.039216 0.000000 0.988235 2.000000 2.000000 0.054902 0.000000 0.000000 0.007843 0.000000 1.960784 2.000000 0.007843 0.000000 0.015686 0.023529 0.000000 0.000000 0.023529 1.992157 1.984314 1.976471 0.996078 0.039216 0.007843 1.011765 1.968627 1.050980 0.000000 0.023529 0.000000 0.000000 0.031373 0.000000 0.000000 0.000000 2.000000 2.000000 2.000000 1.992157 1.968627 2.000000 2.000000 0.000000 0.000000 0.000000 0.007843 0.023529 0.000000 0.047059 0.000000 0.000000 0.015686 1.027451 0.980392 1.992157 2.000000 1.011765 0.000000 0.000000 0.023529 0.015686 0.000000
0 0.015686 0.000000 0.000000 0.023529 0.000000 0.007843 0.988235 2.000000 1.984314 2.000000 1.011765 1.960784 1.011765 0.007843 0.000000 0.015686 0.015686 0.000000 0.015686 0.007843 0.462745 1.866667 2.000000 1.976471 2.000000 1.976471 2.000000 1.976471 2.000000 0.000000 0.000000 0.000000 0.000000 0.000000 0.007843 0.000000 1.066667 1.976471 1.984314 0.000000 0.000000 0.000000 1.035294 2.000000 1.960784 0.996078 0.054902 0.000000 0.000000 0.015686 0.000000 0.000000 0.956863 2.000000 1.019608 0.000000 0.000000 0.000000 0.000000 0.000000 2.000000 1.984314 0.015686 0.000000 0.007843 0.000000 0.047059 0.000000 2.000000 2.000000 0.015686 0.000000 0.000000 0.023529 0.015686 0.000000 1.984314 1.952941 0.000000 0.000000 0.000000 0.031373 0.000000 0.031373 1.976471 1.976471 0.023529 0.000000 0.000000 0.000000 0.000000 0.000000 2.000000 2.000000 0.007843 0.023529 0.000000 0.023529 0.000000 1.011765 1.992157 1.043137 0.007843 0.023529 0.000000 0.007843 0.023529 0.000000 1.992157 2.000000 0.000000 0.007843 0.015686 0.000000 0.007843 0.988235 1.984314 1.027451 0.000000 0.000000 0.000000 0.015686 0.000000 0.000000 2.000000 1.976471 0.007843 0.000000 0.000000 0.000000 0.007843 1.003922 1.976471 1.019608 0.007843 0.000000 0.000000 0.007843 0.000000 0.023529 1.976471 2.000000 0.007843 0.000000 0.007843 0.000000 0.007843 1.003922 2.000000 1.035294 0.000000 0.007843 0.015686 0.000000 0.000000 0.023529 2.000000 1.976471 0.000000 0.015686 0.000000 0.039216 0.000000 0.000000 2.000000 2.000000 0.000000 0.000000 0.000000 0.000000 0.000000 0.000000 1.968627 2.000000 0.031373 0.000000 0.015686 0.015686 0.000000 0.000000 2.000000 1.976471 0.023529 0.000000 0.007843 0.000000 0.047059 0.000000 2.000000 2.000000 0.000000 0.000000 0.015686 0.000000 0.000000 0.000000 1.976471 2.000000 0.000000 0.000000 0.000000 0.015686 0.000000 1.019608 1.952941 1.035294 0.000000 0.031373 0.007843 0.000000 0.000000 0.070588 0.972549 2.000000 1.968627 1.027451 0.000000 0.031373 0.000000 2.000000 2.000000 0.988235 0.023529 0.000000 0.000000 0.039216 0.023529 0.000000 0.000000 1.984314 1.992157 2.000000 2.000000 0.996078 1.984314 1.968627 2.000000 0.000000 0.000000 0.015686 0.007843 0.000000 0.000000 0.015686 0.000000 0.007843 1.003922 1.992157 1.968627 2.000000 1.992157 2.000000 1.027451 0.000000 0.000000 0.000000
0 0.007843 0.000000 0.000000 0.000000 0.015686 0.023529 0.000000 0.000000 0.007843 0.015686 0.000000 0.007843 0.000000 0.000000 0.007843 0.007843 0.000000 0.039216 0.000000 0.054902 0.000000 0.000000 0.031373 0.000000 0.000000 0.007843 0.007843 0.031373 0.000000 0.062745 0.000000 0.015686 0.007843 0.000000 0.007843 0.000000 2.000000 2.000000 1.968627 2.000000 1.992157 0.015686 0.023529 0.000000 0.000000 0.000000 0.031373 0.000000 0.015686 0.000000 0.023529 1.992157 1.984314 2.000000 1.952941 2.000000 1.992157 1.968627 0.015686 0.015686 0.000000 0.007843 0.000000 0.031373 0.000000 0.000000 0.000000 1.984314 1.968627 0.000000 0.023529 0.000000 0.015686 2.000000 1.945098 0.023529 0.000000 0.007843 0.000000 0.000000 0.000000 0.000000 0.000000 2.000000 2.000000 0.007843 0.007843 0.000000 0.000000 1.027451 2.000000 0.996078 0.015686 0.039216 0.000000 0.015686 0.007843 0.007843 0.000000 1.976471 1.992157 0.000000 0.000000 0.000000 0.023529 0.000000 1.984314 2.000000 0.000000 0.000000 0.000000 0.000000 0.000000 0.007843 0.000000 1.984314 1.984314 0.031373 0.000000 0.000000 0.000000 0.007843 2.000000 1.960784 0.039216 0.000000 0.000000 0.007843 0.007843 0.000000 0.015686 1.992157 2.000000 0.015686 0.000000 0.015686 0.000000 0.000000 2.000000 1.984314 0.000000 0.039216 0.000000 0.000000 0.015686 0.031373 0.000000 1.035294 1.960784 1.003922 0.031373 0.007843 0.000000 0.000000 1.976471 2.000000 0.000000 0.000000 0.000000 0.000000 0.000000 0.000000 0.000000 0.015686 2.000000 1.992157 0.031373 0.000000 0.000000 0.000000 2.000000 2.000000 0.007843 0.015686 0.000000 0.015686 0.000000 0.007843 0.015686 0.000000 0.972549 1.992157 0.980392 0.007843 0.007843 0.000000 1.027451 0.980392 0.000000 0.007843 0.039216 0.000000 0.000000 0.039216 0.000000 0.007843 1.043137 2.000000 1.968627 0.015686 0.000000 0.031373 2.000000 2.000000 0.000000 0.039216 0.000000 0.023529 0.007843 0.000000 0.015686 0.000000 0.000000 2.000000 1.992157 1.984314 0.996078 2.000000 1.952941 0.007843 0.000000 0.000000 0.023529 0.000000 0.000000 0.023529 0.015686 0.007843 0.039216 0.972549 1.976471 2.000000 2.000000 1.984314 1.027451 0.000000 0.000000 0.000000 0.015686 0.023529 0.015686 0.000000 0.015686 0.000000 0.000000 0.007843 1.019608 1.003922 0.996078 1.019608 0.007843 0.000000 0.039216 0.000000 0.007843 0.000000
1 0.000000 0.039216 0.000000 0.039216 0.000000 0.023529 0.000000 0.000000 0.000000 0.015686 0.000000 0.000000 0.015686 0.000000 0.031373 0.000000 0.000000 0.000000 0.000000 0.015686 0.000000 0.000000 0.000000 0.023529 0.007843 1.992157 2.000000 0.000000 0.023529 0.023529 0.000000 0.023529 0.047059 0.000000 0.015686 0.000000 0.000000 0.000000 0.007843 0.000000 1.984314 1.968627 1.043137 0.007843 0.015686 0.000000 0.007843 0.000000 0.000000 0.000000 0.015686 0.000000 0.000000 0.000000 0.015686 1.968627 1.992157 1.003922 1.035294 0.000000 0.000000 0.000000 0.047059 0.000000 0.015686 0.031373 0.000000 0.007843 0.000000 0.015686 1.992157 2.000000 0.007843 1.027451 0.972549 0.047059 0.000000 0.000000 0.000000 0.023529 0.015686 0.000000 0.000000 0.015686 0.023529 1.968627 2.000000 0.000000 0.000000 0.980392 1.043137 0.000000 0.000000 0.015686 0.023529 0.000000 0.000000 0.023529 0.031373 0.000000 1.992157 2.000000 0.000000 0.007843 0.000000 1.019608 1.003922 0.000000 0.015686 0.015686 0.000000 0.031373 0.007843 0.000000 0.007843 0.996078 1.984314 0.023529 0.000000 0.000000 0.000000 0.988235 1.035294 0.000000 0.000000 0.000000 0.007843 0.000000 0.000000 0.000000 0.000000 0.000000 0.000000 0.000000 0.000000 0.000000 0.000000 1.003922 0.996078 0.000000 0.015686 0.000000 0.000000 0.007843 0.000000 0.000000 0.000000 0.000000 0.000000 0.000000 0.000000 0.000000 0.000000 1.011765 1.003922 0.000000 0.023529 0.000000 0.000000 0.007843 0.000000 0.000000 0.000000 0.000000 0.000000 0.000000 0.000000 0.000000 0.000000 0.972549 1.011765 0.000000 0.000000 0.000000 0.015686 0.000000 0.000000 0.000000 0.000000 0.000000 0.000000 0.000000 0.000000 0.000000 0.039216 0.996078 1.011765 0.000000 0.039216 0.000000 0.000000 0.000000 0.000000 0.000000 0.000000 0.000000 0.000000 0.000000 0.000000 0.000000 0.000000 0.996078 1.003922 0.000000 0.000000 0.007843 0.015686 0.000000 0.000000 0.000000 0.000000 0.000000 0.000000 0.000000 0.000000 0.000000 0.000000 1.058824 1.003922 0.007843 0.000000 0.031373 0.000000 0.015686 0.000000 0.000000 0.000000 0.000000 0.000000 0.000000 0.000000 0.000000 0.031373 0.000000 0.000000 0.000000 0.023529 0.000000 0.015686 0.000000 0.000000 0.000000 0.000000 0.000000 0.000000 0.000000 0.000000 0.000000 0.000000 0.000000 0.000000 0.007843 0.000000 0.000000 0.000000 0.000000
1 0.000000 0.000000 0.007843 0.000000 0.039216 0.000000 0.007843 0.000000 0.000000 0.054902 0.000000 0.023529 0.000000 0.007843 0.023529 0.000000 0.007843 0.015686 0.000000 0.015686 0.000000 0.023529 0.000000 0.000000 0.007843 0.000000 0.000000 0.000000 0.000000 0.000000 0.015686 0.000000 0.007843 0.015686 0.000000 0.039216 0.039216 0.000000 0.000000 1.984314 2.000000 0.478431 0.000000 0.023529 0.015686 0.007843 0.000000 0.000000 0.000000 0.031373 0.007843 0.000000 0.000000 0.023529 0.972549 2.000000 0.949020 1.027451 0.007843 0.000000 0.023529 0.000000 0.000000 0.023529 0.015686 0.000000 0.007843 0.015686 0.000000 0.470588 1.898039 0.494118 1.019608 1.027451 0.000000 0.023529 0.000000 0.007843 0.031373 0.000000 0.000000 0.000000 0.000000 0.015686 0.494118 1.858824 0.462745 0.000000 1.003922 1.003922 0.015686 0.000000 0.000000 0.015686 0.000000 0.007843 0.007843 0.000000 0.023529 0.007843 0.988235 1.011765 0.000000 0.039216 0.478431 1.850980 0.525490 0.000000 0.031373 0.000000 0.054902 0.000000 0.015686 0.015686 0.000000 0.000000 0.007843 0.000000 0.031373 0.000000 0.000000 1.019608 0.996078 0.000000 0.000000 0.015686 0.000000 0.023529 0.000000 0.000000 0.000000 0.000000 0.000000 0.000000 0.000000 0.000000 0.007843 0.988235 0.996078 0.000000 0.015686 0.007843 0.000000 0.000000 0.000000 0.000000 0.000000 0.000000 0.000000 0.000000 0.000000 0.000000 0.000000 1.011765 2.000000 0.000000 0.000000 0.000000 0.023529 0.000000 0.000000 0.000000 0.000000 0.000000 0.000000 0.000000 0.000000 0.000000 0.000000 0.015686 1.992157 1.003922 0.007843 0.000000 0.000000 0.007843 0.000000 0.000000 0.000000 0.000000 0.000000 0.000000 0.000000 0.000000 0.000000 0.000000 0.964706 1.035294 0.000000 0.000000 0.023529 0.023529 0.000000 0.000000 0.000000 0.000000 0.000000 0.000000 0.000000 0.000000 0.000000 0.023529 0.988235 0.988235 0.000000 0.007843 0.000000 0.000000 0.000000 0.000000 0.000000 0.000000 0.000000 0.000000 0.000000 0.000000 0.000000 0.007843 0.988235 2.000000 0.000000 0.000000 0.015686 0.039216 0.000000 0.000000 0.000000 0.000000 0.000000 0.000000 0.000000 0.000000 0.007843 0.000000 0.039216 0.988235 0.039216 0.031373 0.000000 0.000000 0.000000 0.000000 0.000000 0.000000 0.000000 0.000000 0.000000 0.000000 0.000000 0.047059 0.000000 0.023529 0.000000 0.031373 0.000000 0.023529
1 0.000000 0.031373 0.000000 0.000000 0.000000 0.007843 0.000000 0.000000 0.007843 0.000000 0.964706 2.000000 0.956863 0.023529 0.000000 0.031373 0.000000 0.000000 0.000000 0.007843 0.054902 0.000000 0.007843 0.007843 0.000000 0.031373 2.000000 1.968627 1.003922 0.023529 0.015686 0.000000 0.007843 0.000000 0.023529 0.023529 0.000000 0.039216 0.000000 0.007843 0.023529 0.949020 2.000000 0.988235 1.011765 0.000000 0.000000 0.000000 0.015686 0.000000 0.000000 0.015686 0.000000 0.015686 0.000000 0.000000 0.486275 1.858824 0.501961 0.996078 1.019608 0.007843 0.015686 0.023529 0.000000 0.015686 0.000000 0.000000 0.000000 0.007843 0.015686 0.015686 2.000000 1.027451 0.000000 0.980392 1.027451 0.031373 0.000000 0.000000 0.000000 0.000000 0.023529 0.039216 0.000000 0.000000 0.007843 1.976471 1.992157 0.000000 0.007843 1.011765 0.996078 0.000000 0.039216 0.015686 0.007843 0.015686 0.000000 0.000000 0.000000 0.070588 1.960784 2.000000 0.000000 0.000000 0.000000 0.972549 1.027451 0.007843 0.000000 0.000000 0.007843 0.000000 0.015686 0.023529 0.000000 0.980392 1.992157 0.015686 0.007843 0.000000 0.015686 1.019608 0.996078 0.015686 0.000000 0.007843 0.000000 0.000000 0.007843 0.000000 0.007843 0.000000 0.015686 0.007843 0.000000 0.007843 0.000000 1.011765 0.996078 0.000000 0.000000 0.000000 0.007843 0.015686 0.000000 0.007843 0.000000 0.023529 0.000000 0.007843 0.000000 0.047059 0.000000 0.988235 1.066667 0.000000 0.000000 0.023529 0.000000 0.007843 0.023529 0.015686 0.000000 0.000000 0.007843 0.000000 0.007843 0.007843 0.000000 1.003922 0.956863 0.023529 0.000000 0.000000 0.000000 0.000000 0.000000 0.000000 0.015686 0.023529 0.000000 0.015686 0.000000 0.007843 0.007843 1.043137 1.027451 0.015686 0.000000 0.000000 0.007843 0.015686 0.007843 0.000000 0.007843 0.000000 0.000000 0.000000 0.039216 0.000000 0.000000 0.988235 1.003922 0.000000 0.000000 0.031373 0.007843 0.000000 0.000000 0.000000 0.000000 0.000000 1.019608 1.003922 0.980392 0.031373 0.031373 0.964706 1.003922 0.000000 0.039216 0.000000 0.000000 0.000000 0.031373 0.007843 0.007843 0.000000 1.043137 1.003922 1.521569 1.843137 1.490196 1.976471 1.043137 0.031373 0.000000 0.000000 0.000000 0.000000 0.000000 0.000000 0.023529 0.023529 0.000000 0.000000 0.000000 0.000000 1.019608 1.011765 0.000000 0.007843 0.000000 0.000000
2 0.023529 0.000000 0.000000 0.015686 0.000000 0.015686 0.000000 0.000000 0.015686 0.000000 1.003922 1.019608 0.000000 0.000000 0.000000 0.015686 0.000000 0.047059 0.031373 0.000000 0.054902 0.000000 0.023529 0.000000 0.972549 2.000000 2.000000 1.945098 2.000000 0.039216 0.000000 0.000000 0.000000 0.000000 0.000000 0.000000 0.000000 0.007843 1.490196 1.858824 1.498039 1.011765 0.000000 0.047059 2.000000 0.980392 0.015686 0.000000 0.000000 0.015686 0.039216 0.000000 0.039216 2.000000 1.976471 0.000000 0.007843 0.000000 0.015686 0.000000 0.980392 1.003922 0.023529 0.000000 0.015686 0.000000 0.000000 0.000000 0.996078 1.960784 0.000000 0.031373 0.000000 0.000000 0.023529 0.007843 0.517647 1.819608 0.525490 0.007843 0.015686 0.000000 0.007843 0.007843 1.011765 0.988235 0.015686 0.000000 0.015686 0.000000 0.000000 0.031373 0.000000 0.980392 0.996078 0.000000 0.000000 0.039216 0.000000 0.000000 0.000000 0.015686 0.023529 0.000000 0.007843 0.015686 0.000000 0.023529 0.015686 0.980392 1.019608 0.000000 0.031373 0.000000 0.000000 0.007843 0.000000 0.023529 0.000000 0.015686 0.000000 0.000000 0.000000 0.015686 0.000000 1.027451 1.003922 0.000000 0.007843 0.015686 0.007843 0.000000 0.015686 0.023529 0.000000 0.007843 0.000000 0.015686 0.000000 0.015686 0.000000 2.000000 1.019608 0.000000 0.015686 0.000000 0.023529 0.023529 0.000000 0.007843 0.000000 0.000000 0.007843 0.000000 0.031373 0.000000 0.964706 1.992157 0.023529 0.000000 0.007843 0.023529 0.000000 0.015686 0.007843 0.015686 0.000000 0.000000 0.000000 0.007843 0.023529 0.007843 2.000000 1.011765 0.000000 0.000000 0.000000 0.023529 0.015686 0.007843 0.000000 0.015686 0.047059 0.000000 0.000000 0.023529 0.000000 1.992157 1.968627 0.039216 0.000000 0.007843 0.015686 0.000000 0.007843 0.000000 0.054902 0.007843 0.000000 0.000000 0.015686 0.000000 0.964706 2.000000 0.000000 0.000000 0.007843 0.007843 0.023529 0.007843 0.015686 0.015686 0.007843 0.000000 0.023529 0.023529 0.000000 0.509804 1.858824 0.494118 0.000000 0.000000 0.015686 0.000000 0.000000 0.000000 0.000000 0.047059 0.000000 0.023529 0.000000 0.000000 0.000000 1.976471 1.003922 0.015686 0.000000 0.039216 0.000000 0.996078 0.007843 0.000000 0.000000 0.000000 0.000000 0.023529 0.000000 1.474510 1.882353 1.498039 1.003922 0.988235 0.988235 1.482353 1.850980 1.513725
2 0.000000 0.000000 0.015686 0.000000 0.000000 0.031373 0.000000 0.996078 0.988235 0.988235 0.000000 0.007843 0.015686 0.000000 0.000000 0.015686 0.015686 0.007843 0.000000 0.000000 0.007843 1.019608 1.952941 2.000000 1.019608 1.992157 2.000000 0.000000 0.000000 0.000000 0.000000 0.000000 0.007843 0.000000 0.000000 0.007843 1.019608 1.968627 1.035294 0.000000 0.000000 0.015686 1.976471 1.011765 0.000000 0.054902 0.007843 0.007843 0.000000 0.047059 0.007843 0.031373 0.964706 1.035294 0.000000 0.015686 0.000000 0.015686 1.003922 1.019608 0.000000 0.015686 0.000000 0.000000 0.023529 0.000000 0.000000 0.000000 0.007843 0.000000 0.007843 0.000000 0.000000 0.000000 0.988235 1.019608 0.039216 0.039216 0.000000 0.007843 0.000000 0.000000 0.023529 0.007843 0.000000 0.000000 0.023529 0.000000 0.000000 0.054902 0.996078 0.988235 0.000000 0.015686 0.007843 0.000000 0.023529 0.000000 0.000000 0.007843 0.000000 0.007843 0.015686 0.023529 0.015686 0.007843 0.980392 1.035294 0.007843 0.000000 0.047059 0.000000 0.000000 0.015686 0.000000 0.015686 0.000000 0.015686 0.000000 0.000000 0.000000 0.007843 2.000000 1.003922 0.000000 0.023529 0.000000 0.015686 0.000000 0.015686 0.000000 0.000000 0.023529 0.000000 0.015686 0.000000 0.000000 1.019608 1.984314 0.015686 0.000000 0.000000 0.015686 0.000000 0.000000 0.000000 0.000000 0.000000 0.000000 0.031373 0.000000 0.000000 0.517647 1.858824 0.478431 0.007843 0.023529 0.031373 0.000000 0.000000 0.000000 0.031373 0.015686 0.015686 0.000000 0.000000 0.007843 1.505882 1.843137 0.486275 0.015686 0.000000 0.000000 0.015686 0.000000 0.031373 0.000000 0.007843 0.000000 0.023529 0.015686 0.054902 1.952941 2.000000 0.000000 0.031373 0.000000 0.015686 0.000000 0.007843 0.000000 0.000000 0.007843 0.000000 0.007843 0.000000 0.000000 1.952941 2.000000 0.000000 0.000000 0.000000 0.062745 0.000000 0.000000 0.007843 0.000000 0.031373 0.007843 0.000000 0.000000 0.000000 2.000000 2.000000 0.023529 0.023529 0.031373 0.000000 1.011765 1.003922 1.011765 0.988235 0.039216 0.000000 0.000000 0.000000 0.047059 0.000000 2.000000 2.000000 1.960784 0.996078 1.474510 1.866667 1.505882 0.996078 0.988235 1.035294 0.007843 0.000000 0.000000 0.007843 0.000000 0.000000 0.007843 0.000000 1.027451 1.011765 1.019608 0.000000 0.000000 0.007843 0.007843 0.007843 0.000000 0.000000
2 0.000000 0.015686 0.000000 0.000000 0.015686 0.000000 0.000000 0.000000 0.015686 0.000000 0.007843 0.000000 0.039216 0.000000 0.000000 0.015686 0.015686 0.000000 0.023529 0.000000 0.000000 0.000000 0.039216 0.015686 0.000000 0.000000 0.023529 0.000000 0.000000 0.031373 0.000000 0.000000 0.000000 0.000000 0.000000 0.031373 0.000000 0.023529 0.000000 0.007843 0.000000 0.000000 0.015686 0.015686 0.000000 0.000000 0.007843 0.000000 0.000000 0.000000 0.015686 0.015686 0.000000 0.007843 1.003922 1.003922 0.023529 0.031373 0.000000 0.000000 0.023529 0.031373 0.007843 0.000000 0.023529 0.000000 0.000000 0.996078 0.996078 0.996078 1.498039 1.992157 1.984314 0.000000 0.007843 0.007843 0.000000 0.000000 0.031373 0.000000 0.015686 0.015686 0.000000 1.019608 1.043137 1.011765 1.003922 1.003922 1.984314 0.988235 0.070588 0.000000 0.000000 0.062745 0.000000 0.015686 0.000000 0.031373 0.000000 0.000000 0.000000 0.023529 0.000000 0.000000 0.980392 1.027451 0.000000 0.007843 0.031373 0.000000 0.000000 0.000000 0.015686 0.000000 0.015686 0.000000 0.039216 0.000000 0.023529 0.000000 1.003922 1.011765 0.000000 0.000000 0.000000 0.007843 0.015686 0.000000 0.000000 0.000000 0.023529 0.000000 0.015686 0.000000 0.023529 0.486275 1.843137 0.494118 0.007843 0.000000 0.015686 0.000000 0.015686 0.007843 0.007843 0.000000 0.000000 0.015686 0.000000 0.015686 0.000000 1.019608 1.019608 0.000000 0.031373 0.000000 0.000000 0.054902 0.000000 0.007843 0.007843 0.047059 0.000000 0.015686 0.000000 0.015686 0.509804 1.827451 0.501961 0.000000 0.023529 0.031373 0.007843 0.000000 0.047059 0.000000 0.007843 0.000000 0.015686 0.000000 0.000000 0.023529 1.937255 1.050980 0.007843 0.000000 0.000000 0.007843 0.000000 0.007843 0.000000 0.031373 0.007843 0.000000 0.000000 0.000000 0.047059 1.976471 1.968627 0.000000 0.000000 0.000000 0.039216 0.000000 0.039216 0.000000 0.039216 0.000000 0.007843 0.000000 0.015686 0.000000 1.003922 1.968627 0.054902 0.000000 0.000000 0.031373 1.003922 0.980392 0.988235 0.000000 0.015686 0.000000 0.000000 0.000000 0.015686 0.015686 1.003922 2.000000 1.011765 0.964706 0.996078 1.976471 1.960784 1.050980 1.011765 0.023529 0.023529 0.000000 0.015686 0.007843 0.000000 0.000000 0.023529 0.972549 1.019608 1.019608 1.019608 0.996078 0.007843 0.007843 0.000000 0.000000 0.000000 0.015686
3 0.000000 0.007843 0.000000 0.007843 0.015686 0.015686 0.023529 0.000000 0.007843 0.007843 0.000000 0.007843 0.000000 0.047059 0.000000 0.000000 0.015686 0.000000 0.000000 0.000000 0.000000 0.000000 0.000000 1.011765 0.964706 0.015686 0.023529 0.000000 0.000000 0.000000 0.015686 0.000000 0.000000 0.000000 0.047059 0.000000 0.000000 1.505882 1.866667 1.505882 2.000000 1.976471 0.015686 0.000000 0.054902 0.000000 0.000000 0.031373 0.015686 0.000000 0.000000 0.000000 0.062745 0.972549 0.000000 0.000000 0.031373 1.505882 1.843137 0.462745 0.000000 0.000000 0.062745 0.000000 0.000000 0.023529 0.000000 0.000000 0.015686 0.015686 0.031373 0.015686 0.000000 0.000000 1.027451 1.050980 0.000000 0.039216 0.000000 0.007843 0.000000 0.000000 0.031373 0.023529 0.000000 0.000000 0.023529 0.000000 0.039216 0.000000 1.003922 0.980392 0.015686 0.000000 0.015686 0.000000 0.023529 0.000000 0.000000 0.000000 0.023529 0.000000 0.000000 0.000000 0.000000 0.031373 0.980392 1.003922 0.007843 0.000000 0.000000 0.031373 0.000000 0.015686 0.000000 0.023529 0.031373 0.000000 0.031373 0.000000 0.000000 0.000000 1.992157 1.027451 0.000000 0.000000 0.015686 0.000000 0.007843 0.000000 0.000000 0.023529 0.000000 0.000000 0.988235 0.988235 0.996078 1.984314 2.000000 0.988235 0.996078 1.019608 0.964706 0.023529 0.000000 0.000000 0.015686 0.007843 0.015686 1.019608 2.000000 2.000000 2.000000 1.992157 0.996078 1.027451 0.996078 1.003922 2.000000 0.980392 0.000000 0.054902 0.023529 0.000000 0.000000 0.000000 0.996078 1.035294 0.988235 0.007843 0.023529 0.007843 0.000000 0.023529 0.949020 1.035294 0.023529 0.000000 0.000000 0.039216 0.000000 0.000000 0.031373 0.000000 0.015686 0.023529 0.000000 0.000000 0.023529 0.000000 1.011765 1.019608 0.000000 0.007843 0.000000 0.023529 0.000000 0.000000 0.000000 0.047059 0.000000 0.007843 0.000000 0.000000 0.000000 0.023529 0.996078 1.011765 0.000000 0.023529 0.000000 0.015686 0.000000 0.000000 0.031373 0.000000 0.015686 0.015686 0.023529 0.000000 0.023529 0.517647 1.843137 0.486275 0.031373 0.000000 0.000000 0.023529 0.015686 0.023529 0.980392 0.996078 0.996078 0.000000 0.000000 0.039216 0.972549 2.000000 0.988235 0.000000 0.015686 0.007843 0.015686 0.000000 0.031373 0.000000 1.027451 1.019608 2.000000 1.992157 0.988235 1.960784 2.000000 0.972549 0.007843 0.000000
3 0.000000 0.007843 0.000000 0.000000 0.000000 0.015686 0.000000 0.000000 0.007843 0.015686 0.000000 0.007843 0.000000 0.000000 0.015686 0.000000 0.000000 0.007843 0.000000 0.023529 0.015686 0.000000 1.035294 0.964706 0.988235 0.980392 0.031373 0.000000 0.031373 0.000000 0.023529 0.000000 0.023529 0.000000 0.000000 0.031373 0.000000 0.980392 1.976471 1.027451 1.003922 2.000000 1.003922 0.007843 0.000000 0.000000 0.000000 0.023529 0.000000 0.007843 0.000000 0.000000 0.054902 0.023529 0.000000 0.007843 0.007843 0.988235 1.003922 0.000000 0.015686 0.007843 0.000000 0.000000 0.015686 0.000000 0.031373 0.000000 0.000000 0.015686 0.000000 0.000000 0.000000 2.000000 0.988235 0.015686 0.000000 0.000000 0.054902 0.000000 0.000000 0.015686 0.000000 0.039216 0.023529 0.000000 0.000000 0.000000 1.992157 2.000000 0.031373 0.000000 0.015686 0.007843 0.000000 0.007843 0.000000 0.000000 0.007843 0.000000 0.000000 0.996078 1.976471 2.000000 2.000000 0.980392 0.000000 0.007843 0.000000 0.007843 0.000000 0.007843 0.023529 0.000000 0.000000 0.000000 1.521569 1.984314 2.000000 1.003922 0.996078 1.513725 1.843137 1.505882 0.015686 0.000000 0.023529 0.000000 0.000000 0.000000 0.015686 0.000000 0.000000 0.000000 0.007843 0.000000 0.007843 0.000000 0.000000 2.000000 2.000000 0.000000 0.000000 0.000000 0.007843 0.000000 0.000000 0.031373 0.000000 0.000000 0.000000 0.023529 0.000000 0.007843 0.007843 0.000000 2.000000 1.035294 0.007843 0.000000 0.000000 0.054902 0.000000 0.015686 0.039216 0.000000 0.031373 0.000000 0.000000 0.000000 0.007843 0.015686 0.988235 0.996078 0.007843 0.007843 0.000000 0.000000 0.007843 0.000000 0.000000 0.000000 0.000000 0.015686 0.047059 0.000000 0.023529 0.015686 1.011765 0.956863 0.023529 0.000000 0.000000 0.039216 0.000000 0.007843 0.000000 0.007843 0.972549 0.007843 0.000000 0.047059 0.007843 0.000000 1.960784 1.043137 0.000000 0.007843 0.000000 0.007843 0.015686 0.000000 0.047059 0.000000 1.545098 1.850980 1.505882 0.996078 0.972549 2.000000 1.984314 0.000000 0.000000 0.031373 0.000000 0.023529 0.000000 0.000000 0.000000 0.015686 0.000000 0.000000 1.003922 1.019608 1.027451 1.003922 0.023529 0.015686 0.007843 0.000000 0.000000 0.000000 0.000000 0.023529 0.000000 0.015686 0.000000 0.007843 0.007843 0.000000 0.015686 0.000000 0.000000 0.000000 0.015686 0.007843
3 0.015686 0.007843 0.007843 0.015686 0.007843 0.000000 0.023529 0.000000 0.000000 0.000000 0.007843 0.000000 0.007843 0.000000 0.000000 0.000000 0.000000 0.007843 0.000000 0.023529 0.000000 0.000000 0.000000 1.003922 0.972549 1.019608 0.972549 0.996078 0.007843 0.054902 0.000000 0.000000 0.031373 0.000000 0.000000 0.000000 0.031373 0.023529 2.000000 1.984314 1.027451 1.035294 0.980392 2.000000 1.027451 0.000000 0.031373 0.000000 0.000000 0.015686 0.015686 0.000000 0.000000 0.972549 2.000000 0.007843 0.015686 0.000000 0.031373 0.956863 1.043137 0.000000 0.031373 0.000000 0.047059 0.000000 0.015686 0.031373 0.031373 0.007843 0.000000 0.000000 0.000000 0.000000 0.015686 2.000000 1.003922 0.000000 0.000000 0.000000 0.000000 0.047059 0.000000 0.000000 0.000000 0.000000 0.023529 0.000000 0.015686 0.000000 1.992157 1.976471 0.015686 0.007843 0.015686 0.000000 0.000000 0.007843 0.000000 0.062745 0.000000 0.000000 0.007843 0.000000 0.000000 2.000000 1.968627 0.023529 0.007843 0.000000 0.000000 0.023529 0.015686 0.000000 0.000000 0.000000 0.039216 0.000000 0.000000 0.000000 1.984314 2.000000 0.015686 0.000000 0.000000 0.000000 0.000000 0.007843 0.000000 0.031373 0.000000 0.000000 0.007843 0.000000 0.031373 2.000000 2.000000 1.011765 0.964706 0.996078 0.023529 0.000000 0.031373 0.000000 0.023529 0.000000 0.000000 0.023529 0.015686 0.000000 0.000000 1.960784 0.988235 1.011765 1.019608 1.984314 1.027451 0.000000 0.000000 0.000000 0.000000 0.023529 0.015686 0.000000 0.000000 0.000000 0.031373 0.039216 0.007843 0.015686 0.000000 0.996078 2.000000 0.000000 0.000000 0.062745 0.000000 0.000000 0.000000 0.000000 0.007843 0.023529 0.000000 0.015686 0.015686 0.000000 0.015686 0.023529 1.976471 1.003922 0.000000 0.000000 0.000000 0.007843 0.000000 0.023529 0.000000 0.023529 0.047059 0.000000 0.023529 0.000000 0.015686 1.952941 2.000000 0.000000 0.078431 0.000000 0.000000 0.031373 0.000000 0.023529 0.000000 1.011765 0.980392 0.980392 0.988235 1.011765 2.000000 2.000000 0.000000 0.000000 0.000000 0.007843 0.015686 0.000000 0.023529 0.000000 0.047059 0.972549 1.035294 1.011765 1.019608 1.011765 1.003922 0.000000 0.000000 0.000000 0.031373 0.000000 0.000000 0.023529 0.000000 0.000000 0.000000 0.023529 0.000000 0.023529 0.000000 0.007843 0.007843 0.000000 0.000000 0.000000 0.007843 0.007843
4 0.000000 0.000000 0.015686 0.000000 1.011765 0.996078 0.000000 0.000000 0.000000 0.007843 0.015686 0.015686 0.000000 0.007843 0.000000 0.000000 0.007843 0.007843 0.000000 0.015686 1.513725 1.513725 0.031373 0.007843 0.023529 0.000000 0.000000 1.968627 2.000000 0.000000 0.039216 0.000000 0.000000 0.007843 0.000000 0.015686 1.945098 1.968627 0.015686 0.007843 0.015686 0.000000 0.031373 1.984314 2.000000 0.031373 0.000000 0.000000 0.000000 0.000000 0.000000 0.000000 2.000000 2.000000 0.000000 0.000000 0.000000 0.000000 0.000000 2.000000 1.952941 2.000000 0.007843 0.000000 0.007843 0.015686 0.015686 0.000000 1.984314 1.992157 0.000000 0.015686 0.007843 0.023529 0.000000 1.960784 1.992157 2.000000 0.031373 0.000000 0.000000 0.023529 0.000000 0.000000 2.000000 1.976471 0.000000 0.015686 0.023529 0.000000 0.000000 2.000000 2.000000 2.000000 0.000000 0.000000 0.000000 0.000000 0.000000 0.000000 2.000000 1.984314 0.000000 0.000000 0.000000 0.000000 0.007843 1.976471 1.968627 1.984314 0.000000 0.000000 0.007843 0.000000 0.031373 0.000000 2.000000 1.976471 0.015686 0.000000 0.000000 0.070588 0.000000 2.000000 1.976471 2.000000 0.000000 0.023529 0.000000 0.000000 0.023529 0.000000 1.482353 2.000000 1.984314 1.505882 1.482353 1.513725 1.505882 2.000000 1.984314 2.000000 0.000000 0.007843 0.000000 0.000000 0.000000 0.023529 0.015686 1.537255 2.000000 1.984314 2.000000 2.000000 1.968627 2.000000 2.000000 1.937255 0.007843 0.007843 0.000000 0.047059 0.023529 0.000000 0.015686 0.000000 0.007843 1.003922 1.027451 0.988235 1.035294 2.000000 2.000000 1.043137 0.000000 0.000000 0.000000 0.000000 0.015686 0.000000 0.000000 0.023529 0.000000 0.023529 0.000000 0.000000 0.047059 1.960784 2.000000 0.988235 0.000000 0.000000 0.000000 0.015686 0.000000 0.000000 0.031373 0.000000 0.015686 0.000000 0.007843 0.000000 0.000000 1.984314 2.000000 1.043137 0.007843 0.000000 0.007843 0.007843 0.000000 0.000000 0.007843 0.007843 0.000000 0.031373 0.023529 0.031373 0.000000 2.000000 2.000000 0.964706 0.031373 0.000000 0.031373 0.000000 0.031373 0.000000 0.015686 0.000000 0.007843 0.000000 0.000000 0.031373 0.023529 1.952941 2.000000 1.011765 0.000000 0.015686 0.000000 0.007843 0.000000 0.015686 0.000000 0.000000 0.007843 0.007843 0.015686 0.000000 0.000000 2.000000 1.992157 0.015686 0.000000 0.007843
4 0.007843 0.007843 0.000000 0.015686 0.000000 0.015686 0.000000 0.015686 0.015686 0.000000 0.000000 0.000000 0.000000 0.015686 0.015686 0.000000 0.000000 0.000000 0.023529 0.000000 0.007843 0.000000 1.027451 1.003922 0.000000 0.007843 0.015686 0.000000 0.023529 0.000000 0.000000 0.023529 0.000000 0.000000 0.015686 0.015686 0.000000 0.996078 1.482353 1.003922 0.047059 0.000000 0.015686 0.023529 0.972549 0.996078 0.000000 0.000000 0.023529 0.000000 0.000000 0.015686 0.015686 0.996078 1.529412 1.011765 0.000000 0.000000 0.007843 0.015686 1.035294 1.003922 0.015686 0.000000 0.000000 0.023529 0.000000 0.023529 0.000000 1.011765 1.474510 1.027451 0.007843 0.015686 0.000000 0.964706 2.000000 0.988235 0.031373 0.007843 0.007843 0.007843 0.000000 0.015686 0.031373 0.933333 1.513725 1.019608 0.000000 0.000000 0.007843 0.988235 2.000000 1.035294 0.000000 0.000000 0.000000 0.000000 0.000000 0.000000 0.000000 0.996078 1.521569 1.003922 0.000000 0.015686 0.000000 1.035294 2.000000 0.996078 0.000000 0.023529 0.000000 0.000000 0.007843 0.007843 0.000000 1.019608 1.498039 1.019608 0.000000 0.000000 0.015686 1.984314 2.000000 0.015686 0.000000 0.000000 0.000000 0.031373 0.000000 0.000000 0.015686 0.972549 1.984314 1.011765 0.000000 0.023529 1.003922 1.960784 2.000000 0.000000 0.000000 0.007843 0.000000 0.000000 0.000000 0.039216 0.015686 1.482353 2.000000 0.980392 1.027451 1.945098 1.976471 2.000000 1.976471 0.007843 0.000000 0.015686 0.023529 0.023529 0.007843 0.000000 0.000000 1.050980 1.450980 1.035294 0.996078 1.043137 0.007843 1.984314 2.000000 0.000000 0.000000 0.000000 0.000000 0.000000 0.031373 0.000000 0.000000 0.000000 0.015686 0.000000 0.000000 0.000000 0.000000 2.000000 1.984314 0.000000 0.023529 0.015686 0.023529 0.015686 0.000000 0.000000 0.000000 0.000000 0.007843 0.031373 0.031373 0.000000 0.015686 1.945098 2.000000 0.023529 0.000000 0.000000 0.000000 0.000000 0.023529 0.000000 0.000000 0.023529 0.000000 0.000000 0.000000 0.000000 0.015686 1.984314 1.984314 0.000000 0.000000 0.000000 0.015686 0.000000 0.000000 0.000000 0.047059 0.007843 0.000000 0.007843 0.015686 0.054902 0.000000 0.023529 0.000000 0.000000 0.007843 0.015686 0.007843 0.015686 0.000000 0.023529 0.000000 0.000000 0.023529 0.000000 0.007843 0.000000 0.000000 0.007843 0.015686 0.000000 0.015686 0.000000
4 0.007843 0.000000 0.015686 0.000000 0.031373 0.000000 0.047059 0.000000 0.015686 0.007843 0.000000 0.007843 0.015686 0.000000 0.023529 0.000000 0.015686 0.007843 0.000000 0.039216 0.000000 0.964706 1.035294 0.000000 0.000000 0.015686 0.000000 0.996078 0.000000 0.015686 0.000000 0.023529 0.000000 0.000000 0.023529 0.000000 0.007843 0.996078 1.003922 0.007843 0.007843 0.000000 0.980392 2.000000 1.011765 0.000000 0.039216 0.000000 0.000000 0.015686 0.023529 0.000000 0.000000 1.035294 1.003922 0.015686 0.023529 0.000000 1.027451 2.000000 1.035294 0.000000 0.000000 0.023529 0.000000 0.015686 0.000000 0.015686 0.031373 0.988235 0.988235 0.000000 0.000000 0.000000 0.949020 2.000000 1.027451 0.000000 0.007843 0.000000 0.023529 0.000000 0.039216 0.000000 0.000000 0.996078 1.050980 0.000000 0.000000 0.031373 1.027451 1.984314 1.019608 0.031373 0.015686 0.000000 0.000000 0.015686 0.000000 0.007843 0.039216 1.003922 0.980392 0.000000 0.000000 0.000000 0.996078 1.945098 1.050980 0.000000 0.000000 0.023529 0.000000 0.007843 0.015686 0.000000 0.000000 0.980392 2.000000 0.988235 1.003922 0.000000 0.525490 1.984314 1.490196 0.000000 0.015686 0.000000 0.000000 0.000000 0.000000 0.000000 0.000000 0.000000 1.027451 1.011765 1.984314 2.000000 1.811765 1.529412 1.003922 0.007843 0.031373 0.000000 0.000000 0.000000 0.007843 0.007843 0.031373 0.000000 0.023529 0.000000 0.000000 0.996078 0.007843 0.972549 1.019608 0.000000 0.000000 0.000000 0.000000 0.015686 0.000000 0.000000 0.000000 0.039216 0.000000 0.031373 0.007843 0.000000 0.000000 1.027451 2.000000 0.015686 0.000000 0.031373 0.000000 0.000000 0.000000 0.031373 0.000000 0.000000 0.031373 0.000000 0.000000 0.031373 0.039216 0.000000 1.984314 1.027451 0.000000 0.015686 0.015686 0.000000 0.023529 0.000000 0.031373 0.000000 0.000000 0.007843 0.000000 0.000000 0.000000 0.047059 1.003922 0.996078 0.000000 0.000000 0.000000 0.000000 0.023529 0.000000 0.000000 0.007843 0.000000 0.031373 0.007843 0.000000 0.031373 0.007843 1.003922 0.988235 0.023529 0.000000 0.023529 0.007843 0.000000 0.039216 0.000000 0.000000 0.039216 0.000000 0.000000 0.000000 0.000000 0.000000 1.027451 1.035294 0.000000 0.007843 0.000000 0.000000 0.007843 0.000000 0.007843 0.000000 0.023529 0.000000 0.000000 0.007843 0.000000 0.039216 0.000000 0.000000 0.000000 0.015686
5 0.007843 0.007843 0.000000 0.015686 0.000000 0.015686 0.000000 0.023529 0.000000 0.047059 0.000000 0.007843 0.000000 0.007843 0.000000 0.000000 0.000000 0.000000 0.015686 0.000000 0.000000 0.007843 1.003922 0.972549 1.003922 0.988235 0.980392 0.996078 1.027451 0.007843 0.000000 0.015686 0.015686 0.000000 0.039216 0.000000 0.015686 1.952941 1.976471 1.035294 1.035294 1.003922 1.019608 1.027451 1.011765 0.000000 0.000000 0.023529 0.015686 0.000000 0.031373 0.000000 0.000000 2.000000 2.000000 0.000000 0.000000 0.000000 0.023529 0.000000 0.023529 0.000000 0.031373 0.000000 0.000000 0.000000 0.000000 0.007843 0.000000 1.976471 2.000000 0.007843 0.023529 0.000000 0.047059 0.000000 0.000000 0.000000 0.000000 0.000000 0.007843 0.015686 0.000000 0.000000 0.015686 1.992157 2.000000 0.000000 0.000000 0.031373 0.000000 0.000000 0.062745 0.000000 0.000000 0.000000 0.000000 0.000000 0.031373 0.000000 0.000000 1.960784 2.000000 0.007843 0.007843 0.000000 0.039216 0.000000 0.000000 0.000000 0.039216 0.000000 0.000000 0.000000 0.015686 0.000000 0.039216 2.000000 1.984314 1.003922 1.003922 0.000000 0.023529 0.000000 0.023529 0.000000 0.000000 0.000000 0.000000 0.000000 0.039216 0.000000 0.972549 2.000000 2.000000 1.992157 2.000000 2.000000 0.000000 0.000000 0.039216 0.000000 0.000000 0.007843 0.015686 0.000000 0.000000 0.000000 0.054902 0.000000 0.000000 0.039216 1.968627 2.000000 2.000000 1.482353 0.000000 0.000000 0.031373 0.000000 0.000000 0.000000 0.039216 0.007843 0.000000 0.000000 0.039216 0.000000 0.023529 0.988235 2.000000 1.976471 0.996078 0.000000 0.000000 0.007843 0.000000 0.000000 0.015686 0.000000 0.000000 0.000000 0.000000 0.031373 0.000000 0.000000 0.000000 2.000000 1.976471 0.031373 0.000000 0.015686 0.039216 0.000000 0.007843 0.000000 0.000000 0.047059 0.000000 0.000000 0.000000 1.019608 1.482353 2.000000 1.498039 0.000000 0.023529 0.000000 0.000000 0.023529 0.000000 0.972549 1.027451 0.949020 1.992157 1.976471 2.000000 2.000000 1.976471 2.000000 0.000000 0.023529 0.000000 0.015686 0.007843 0.000000 0.015686 1.011765 1.011765 0.996078 2.000000 1.984314 1.992157 0.996078 1.035294 0.000000 0.015686 0.000000 0.031373 0.007843 0.000000 0.000000 0.000000 0.047059 0.000000 0.000000 0.015686 0.007843 0.000000 0.039216 0.000000 0.007843 0.000000 0.015686 0.000000 0.000000
5 0.015686 0.007843 0.007843 0.000000 0.023529 0.000000 1.490196 1.521569 2.000000 1.498039 1.003922 1.011765 2.000000 1.976471 2.000000 0.000000 0.000000 0.000000 0.000000 0.039216 0.000000 2.000000 2.000000 1.960784 1.992157 1.992157 2.000000 1.952941 2.000000 1.968627 2.000000 0.015686 0.007843 0.015686 0.000000 0.000000 0.047059 2.000000 1.741176 1.545098 1.019608 1.505882 1.003922 1.050980 0.031373 0.007843 0.007843 0.000000 0.000000 0.007843 0.000000 0.031373 0.000000 0.972549 1.505882 0.980392 0.015686 0.000000 0.000000 0.000000 0.000000 0.000000 0.023529 0.000000 0.015686 0.000000 0.000000 0.000000 0.007843 1.003922 1.505882 1.027451 0.000000 0.000000 0.054902 0.000000 0.000000 0.062745 0.000000 0.000000 0.000000 0.047059 0.023529 0.000000 0.015686 1.231373 2.000000 1.247059 0.000000 0.000000 0.000000 0.000000 0.039216 0.000000 0.000000 0.023529 0.039216 0.015686 0.000000 0.000000 0.031373 1.019608 2.000000 2.000000 2.000000 1.513725 1.545098 0.000000 0.000000 0.000000 0.000000 0.000000 0.000000 0.000000 0.015686 0.031373 0.000000 0.054902 0.980392 1.019608 1.521569 1.505882 1.976471 2.000000 1.254902 0.000000 0.015686 0.007843 0.000000 0.000000 0.031373 0.000000 0.000000 0.039216 0.000000 0.015686 0.015686 0.000000 0.007843 1.239216 1.984314 1.270588 0.000000 0.000000 0.000000 0.000000 0.031373 0.015686 0.000000 0.000000 0.015686 0.000000 0.000000 0.039216 0.000000 0.023529 1.466667 1.505882 0.023529 0.031373 0.007843 0.000000 0.000000 0.000000 0.000000 0.007843 0.007843 0.000000 0.000000 0.000000 0.031373 0.000000 1.529412 1.537255 0.000000 0.000000 0.000000 0.007843 0.047059 0.000000 0.023529 0.007843 0.007843 0.015686 0.015686 0.023529 0.000000 0.996078 2.000000 1.498039 0.000000 0.023529 0.000000 0.000000 0.000000 0.023529 0.000000 0.988235 1.011765 0.949020 0.988235 0.972549 2.000000 2.000000 1.992157 0.000000 0.015686 0.000000 0.023529 0.000000 0.000000 0.023529 1.992157 2.000000 1.952941 2.000000 2.000000 0.988235 1.247059 1.827451 0.533333 0.000000 0.031373 0.000000 0.000000 0.007843 0.023529 0.000000 2.000000 0.996078 1.035294 1.992157 1.976471 2.000000 2.000000 0.988235 0.000000 0.015686 0.000000 0.000000 0.000000 0.000000 0.000000 0.015686 0.980392 2.000000 0.988235 1.984314 2.000000 1.921569 1.482353 0.031373 0.000000 0.000000 0.023529 0.000000
5 0.039216 0.000000 0.000000 0.007843 0.000000 0.007843 0.000000 0.015686 0.000000 0.015686 0.000000 0.000000 0.039216 0.000000 0.015686 0.000000 0.000000 0.000000 0.007843 0.000000 0.031373 0.988235 0.972549 0.988235 0.996078 0.996078 1.027451 0.000000 0.007843 0.000000 0.023529 0.015686 0.047059 0.000000 0.015686 0.996078 0.996078 1.043137 1.019608 1.011765 1.011765 1.011765 0.972549 0.023529 0.000000 0.000000 0.000000 0.000000 0.000000 0.000000 0.015686 0.996078 0.996078 0.000000 0.007843 0.007843 0.015686 0.007843 0.000000 0.000000 0.054902 0.007843 0.015686 0.031373 0.023529 0.007843 0.000000 1.019608 0.988235 0.031373 0.000000 0.000000 0.023529 0.000000 0.000000 0.007843 0.047059 0.000000 0.000000 0.000000 0.000000 0.007843 0.000000 0.996078 2.000000 0.980392 0.996078 0.039216 0.007843 0.000000 0.054902 0.000000 0.000000 0.000000 0.039216 0.000000 0.015686 0.000000 0.000000 0.000000 1.035294 1.003922 1.513725 1.819608 0.494118 0.039216 0.000000 0.023529 0.000000 0.015686 0.000000 0.000000 0.000000 0.000000 0.031373 0.000000 0.015686 0.000000 0.015686 0.509804 1.835294 0.478431 0.031373 0.000000 0.015686 0.023529 0.000000 0.023529 0.007843 0.000000 0.000000 0.039216 0.000000 0.015686 0.000000 0.023529 0.988235 2.000000 0.007843 0.000000 0.023529 0.000000 0.000000 0.031373 0.000000 0.007843 0.015686 0.000000 0.007843 0.000000 0.000000 0.007843 0.000000 1.976471 1.011765 0.000000 0.000000 0.062745 0.000000 0.000000 0.031373 0.007843 0.000000 0.000000 0.031373 0.015686 0.007843 0.007843 0.000000 2.000000 1.011765 0.015686 0.000000 0.000000 0.015686 0.039216 0.000000 0.000000 0.078431 0.000000 0.000000 0.007843 0.007843 0.988235 2.000000 1.984314 0.000000 0.000000 0.039216 0.000000 0.023529 0.000000 0.007843 0.015686 0.000000 0.000000 0.996078 1.968627 1.850980 1.513725 0.996078 0.031373 0.000000 0.000000 0.015686 0.015686 0.000000 0.031373 0.000000 0.023529 0.000000 0.031373 0.015686 1.011765 0.000000 0.015686 0.000000 0.000000 0.023529 0.000000 0.007843 0.000000 0.000000 0.000000 0.031373 0.000000 0.023529 0.000000 0.000000 0.000000 0.039216 0.007843 0.000000 0.000000 0.039216 0.015686 0.000000 0.031373 0.000000 0.007843 0.000000 0.000000 0.031373 0.000000 0.015686 0.007843 0.000000 0.000000 0.015686 0.000000 0.000000 0.000000 0.023529 0.000000 0.000000 0.000000
6 0.000000 0.015686 0.000000 0.015686 0.007843 0.000000 0.007843 0.015686 0.972549 1.003922 1.011765 0.023529 0.000000 0.000000 0.015686 0.007843 0.023529 0.000000 0.000000 0.000000 0.000000 0.023529 1.474510 1.835294 1.529412 0.996078 2.000000 1.976471 0.015686 0.023529 0.000000 0.000000 0.000000 0.007843 0.023529 0.023529 0.000000 0.980392 2.000000 0.000000 0.015686 0.000000 0.007843 1.992157 1.011765 0.000000 0.015686 0.039216 0.007843 0.000000 0.000000 0.000000 0.015686 1.992157 1.019608 0.007843 0.000000 0.007843 0.000000 0.996078 1.003922 0.023529 0.000000 0.000000 0.000000 0.023529 0.000000 0.039216 0.956863 2.000000 0.000000 0.000000 0.000000 0.039216 0.007843 0.988235 1.003922 0.015686 0.000000 0.031373 0.015686 0.000000 0.000000 0.007843 1.019608 0.996078 0.000000 0.039216 0.023529 0.000000 0.007843 0.015686 0.015686 0.000000 0.007843 0.000000 0.000000 0.031373 0.031373 0.015686 0.956863 0.972549 0.031373 0.000000 0.000000 0.023529 0.000000 0.007843 0.000000 0.000000 0.007843 0.000000 0.023529 0.000000 0.000000 0.501961 1.850980 0.509804 0.000000 0.000000 0.023529 0.000000 0.054902 0.000000 0.047059 0.000000 0.000000 0.007843 0.000000 0.000000 0.000000 0.996078 1.011765 0.015686 0.000000 0.996078 1.019608 0.000000 0.023529 0.000000 0.000000 0.000000 0.031373 0.000000 0.023529 0.000000 0.007843 0.996078 1.011765 1.019608 1.984314 2.000000 1.984314 1.984314 0.980392 0.015686 0.015686 0.000000 0.000000 0.023529 0.000000 0.031373 0.007843 0.478431 2.000000 1.984314 1.011765 0.023529 0.000000 1.019608 2.000000 2.000000 0.000000 0.000000 0.000000 0.000000 0.031373 0.000000 0.000000 0.054902 1.960784 1.043137 0.000000 0.000000 0.023529 0.000000 0.000000 1.984314 1.011765 0.031373 0.015686 0.000000 0.000000 0.015686 0.000000 0.000000 0.980392 0.988235 0.015686 0.023529 0.000000 0.039216 0.996078 1.992157 0.000000 0.015686 0.000000 0.023529 0.007843 0.000000 0.023529 0.000000 1.027451 2.000000 0.956863 0.988235 1.019608 0.949020 2.000000 1.019608 0.000000 0.007843 0.023529 0.000000 0.000000 0.000000 0.000000 0.000000 0.015686 0.996078 1.074510 1.003922 1.003922 1.027451 0.996078 0.000000 0.000000 0.000000 0.000000 0.000000 0.007843 0.000000 0.007843 0.031373 0.000000 0.000000 0.000000 0.007843 0.000000 0.000000 0.000000 0.000000 0.015686 0.007843 0.000000 0.007843
6 0.000000 0.000000 0.007843 0.000000 0.015686 0.000000 1.011765 1.003922 0.972549 1.019608 0.007843 0.015686 0.023529 0.000000 0.023529 0.007843 0.000000 0.023529 0.000000 0.000000 0.023529 1.992157 1.968627 1.011765 1.035294 1.968627 2.000000 0.956863 0.015686 0.000000 0.000000 0.015686 0.000000 0.000000 0.023529 1.529412 1.811765 1.505882 0.023529 0.000000 0.015686 0.000000 1.027451 2.000000 1.992157 0.007843 0.023529 0.000000 0.031373 0.000000 1.960784 1.968627 0.000000 0.015686 0.000000 0.015686 0.000000 0.015686 0.000000 0.000000 1.992157 1.992157 0.000000 0.023529 0.000000 1.992157 2.000000 0.007843 0.047059 0.000000 0.054902 0.000000 0.007843 0.000000 0.000000 0.015686 0.054902 1.984314 1.011765 0.015686 1.003922 2.000000 0.015686 0.000000 0.000000 0.031373 0.000000 0.039216 0.015686 0.000000 0.015686 0.000000 0.000000 0.015686 0.000000 0.000000 0.996078 1.003922 0.015686 0.000000 0.023529 0.023529 0.000000 0.007843 0.000000 0.015686 0.007843 0.000000 0.039216 0.000000 0.054902 0.000000 0.988235 1.027451 0.000000 0.015686 0.000000 0.023529 0.023529 0.000000 0.007843 0.023529 0.000000 0.015686 0.000000 0.007843 0.000000 0.007843 0.988235 1.019608 0.000000 0.023529 1.003922 0.996078 1.019608 0.972549 0.980392 0.988235 0.023529 0.000000 0.000000 0.000000 0.000000 0.000000 0.996078 0.972549 1.505882 1.796078 1.490196 1.003922 0.980392 1.050980 1.011765 2.000000 2.000000 1.003922 0.031373 0.000000 0.031373 0.000000 1.011765 1.984314 2.000000 0.000000 0.031373 0.015686 0.000000 0.000000 0.000000 0.000000 1.035294 1.952941 1.027451 0.000000 0.000000 0.000000 0.007843 2.000000 1.035294 0.000000 0.000000 0.000000 0.023529 0.000000 0.015686 0.000000 0.996078 2.000000 0.000000 0.023529 0.023529 0.000000 0.000000 0.996078 2.000000 1.043137 0.000000 0.000000 0.000000 0.015686 0.000000 0.039216 1.992157 1.035294 0.000000 0.000000 0.023529 0.000000 0.000000 0.015686 1.011765 1.992157 1.984314 1.003922 1.027451 0.980392 1.513725 1.811765 1.482353 0.023529 0.000000 0.000000 0.000000 0.015686 0.000000 0.000000 0.007843 0.000000 1.058824 0.996078 0.980392 1.027451 0.988235 0.031373 0.000000 0.000000 0.007843 0.015686 0.007843 0.000000 0.000000 0.039216 0.000000 0.007843 0.000000 0.023529 0.000000 0.000000 0.000000 0.000000 0.000000 0.000000 0.000000 0.000000 0.015686 0.000000
6 0.015686 0.007843 0.000000 0.007843 0.000000 0.007843 0.000000 0.015686 0.007843 0.000000 0.000000 0.023529 0.000000 0.000000 0.023529 0.000000 0.015686 0.000000 0.031373 0.000000 0.007843 0.000000 0.070588 0.000000 0.980392 0.988235 0.996078 0.000000 0.007843 0.015686 0.000000 0.000000 0.000000 0.000000 0.031373 0.000000 0.015686 0.000000 0.007843 2.000000 2.000000 1.050980 2.000000 1.976471 0.972549 0.031373 0.000000 0.000000 0.031373 0.007843 0.000000 0.015686 0.007843 0.023529 1.992157 1.992157 0.000000 0.000000 0.031373 1.043137 2.000000 0.980392 0.000000 0.031373 0.000000 0.000000 0.054902 0.000000 0.000000 1.011765 2.000000 0.000000 0.000000 0.039216 0.000000 0.000000 1.003922 1.011765 0.007843 0.007843 0.054902 0.023529 0.000000 0.015686 0.023529 0.949020 1.027451 0.000000 0.000000 0.000000 0.015686 0.039216 0.980392 1.019608 0.015686 0.000000 0.000000 0.000000 0.000000 0.000000 0.000000 0.972549 1.035294 0.000000 0.007843 0.007843 0.000000 0.015686 0.000000 0.007843 0.000000 0.000000 0.000000 0.015686 0.000000 0.023529 0.007843 1.019608 0.996078 0.015686 0.000000 0.015686 0.000000 0.000000 0.000000 0.000000 0.023529 0.007843 0.015686 0.000000 0.000000 0.031373 0.000000 0.988235 1.011765 0.007843 0.000000 0.015686 0.000000 0.000000 0.023529 0.015686 0.000000 0.000000 0.000000 0.023529 0.000000 0.000000 0.000000 1.043137 0.972549 0.000000 0.980392 0.996078 1.027451 1.027451 0.956863 0.015686 0.000000 0.023529 0.031373 0.000000 0.015686 0.000000 0.023529 0.941176 1.505882 1.858824 1.505882 1.003922 1.003922 0.996078 1.992157 1.011765 0.047059 0.000000 0.000000 0.023529 0.007843 0.000000 0.000000 1.003922 2.000000 1.019608 0.015686 0.000000 0.015686 0.007843 1.003922 0.996078 0.015686 0.000000 0.039216 0.000000 0.000000 0.023529 0.007843 0.972549 2.000000 0.000000 0.000000 0.031373 0.000000 0.007843 2.000000 0.980392 0.039216 0.000000 0.000000 0.000000 0.007843 0.015686 0.007843 0.000000 2.000000 1.011765 0.000000 0.039216 0.000000 1.976471 1.960784 0.039216 0.000000 0.000000 0.015686 0.000000 0.023529 0.000000 0.000000 0.039216 0.972549 2.000000 1.043137 0.956863 2.000000 2.000000 0.000000 0.000000 0.031373 0.000000 0.000000 0.007843 0.000000 0.023529 0.015686 0.000000 0.000000 1.019608 1.003922 1.027451 0.996078 0.000000 0.015686 0.007843 0.000000 0.015686
7 0.015686 0.000000 0.000000 0.000000 0.031373 0.000000 0.023529 0.000000 0.000000 0.031373 0.007843 0.000000 0.000000 0.000000 0.000000 0.015686 0.000000 0.000000 0.023529 0.000000 0.000000 0.980392 0.000000 0.007843 0.031373 0.000000 0.000000 0.000000 0.000000 0.007843 0.000000 0.000000 0.000000 0.031373 0.000000 0.031373 1.027451 2.000000 1.968627 0.007843 0.007843 0.000000 0.007843 0.015686 0.015686 0.000000 0.015686 0.000000 0.000000 0.007843 0.007843 0.000000 1.011765 0.972549 1.576471 1.819608 1.466667 0.039216 0.023529 0.000000 0.023529 0.000000 0.023529 0.000000 0.007843 0.007843 0.007843 0.031373 0.980392 1.027451 0.000000 0.023529 2.000000 2.000000 0.980392 1.003922 0.015686 0.000000 0.000000 0.007843 0.000000 0.015686 0.000000 0.007843 0.980392 1.043137 0.039216 0.007843 0.023529 1.027451 1.960784 1.976471 1.027451 0.000000 0.000000 0.000000 0.000000 0.015686 0.000000 0.007843 0.007843 0.023529 0.000000 0.000000 0.000000 0.000000 2.000000 2.000000 0.000000 0.000000 0.007843 0.007843 0.023529 0.000000 0.007843 0.000000 0.000000 0.000000 0.000000 0.023529 0.007843 0.015686 1.992157 2.000000 0.015686 0.000000 0.023529 0.000000 0.000000 0.000000 0.039216 0.000000 0.039216 0.000000 0.000000 0.007843 0.023529 0.000000 2.000000 1.976471 0.000000 0.039216 0.007843 0.000000 0.015686 0.007843 0.000000 0.007843 0.000000 1.984314 2.000000 2.000000 1.992157 1.976471 1.960784 2.000000 1.035294 0.000000 0.031373 0.015686 0.000000 0.054902 0.000000 0.039216 0.000000 1.976471 2.000000 1.992157 1.992157 2.000000 2.000000 1.976471 1.011765 0.023529 0.000000 0.000000 0.015686 0.000000 0.031373 0.000000 0.007843 0.000000 0.000000 0.000000 0.000000 1.011765 2.000000 1.984314 0.007843 0.000000 0.000000 0.023529 0.000000 0.039216 0.007843 0.007843 0.007843 0.007843 0.000000 0.000000 0.000000 1.254902 1.992157 2.000000 0.000000 0.031373 0.000000 0.015686 0.023529 0.000000 0.000000 0.000000 0.015686 0.000000 0.007843 0.000000 0.000000 0.996078 1.976471 2.000000 0.007843 0.007843 0.000000 0.000000 0.000000 0.007843 0.007843 0.000000 0.007843 0.000000 0.000000 0.000000 0.023529 0.988235 2.000000 1.976471 0.023529 0.007843 0.015686 0.000000 0.000000 0.015686 0.000000 0.000000 0.000000 0.015686 0.015686 0.000000 0.000000 0.000000 0.000000 0.023529 0.000000 0.015686 0.000000 0.000000
7 0.000000 0.023529 0.039216 0.000000 0.023529 0.000000 0.000000 0.000000 0.000000 0.007843 0.000000 0.000000 0.023529 0.015686 0.007843 0.000000 0.015686 0.000000 0.000000 0.007843 0.000000 0.000000 1.019608 0.015686 0.000000 0.000000 0.015686 0.007843 0.007843 0.000000 0.000000 0.039216 0.000000 0.039216 0.015686 0.000000 0.007843 1.027451 1.968627 0.980392 0.000000 0.007843 0.000000 0.023529 0.000000 0.000000 0.000000 2.000000 0.000000 0.000000 0.000000 0.007843 0.454902 1.835294 1.490196 2.000000 0.007843 0.023529 0.000000 0.023529 0.000000 0.039216 0.988235 1.992157 0.015686 0.015686 0.000000 0.039216 0.988235 1.019608 0.047059 1.960784 0.988235 0.000000 0.000000 0.000000 0.015686 1.427451 2.000000 1.968627 0.000000 0.000000 0.047059 0.000000 0.972549 1.011765 0.000000 1.003922 2.000000 1.035294 0.996078 1.450980 1.874510 2.000000 1.905882 1.262745 0.000000 0.007843 0.007843 0.039216 0.000000 0.039216 0.000000 0.007843 1.011765 0.988235 1.035294 1.019608 0.000000 0.996078 1.992157 1.003922 0.007843 0.000000 0.000000 0.000000 0.015686 0.000000 0.000000 0.000000 0.000000 0.023529 0.000000 0.000000 0.023529 1.992157 2.000000 0.000000 0.000000 0.031373 0.000000 0.000000 0.000000 0.015686 0.000000 0.000000 0.000000 0.015686 0.015686 0.000000 1.317647 1.976471 1.003922 0.023529 0.000000 0.000000 0.023529 0.015686 0.000000 0.000000 0.000000 0.007843 0.015686 0.000000 0.007843 0.501961 1.984314 2.000000 0.972549 0.000000 0.015686 0.023529 0.000000 0.000000 0.023529 0.000000 0.015686 0.000000 0.000000 0.000000 0.054902 1.458824 1.984314 2.000000 1.019608 0.000000 0.000000 0.000000 0.000000 0.015686 0.000000 0.015686 0.000000 0.031373 0.000000 0.007843 0.000000 1.513725 2.000000 1.968627 0.000000 0.031373 0.007843 0.000000 0.031373 0.007843 0.000000 0.007843 0.000000 0.972549 2.000000 2.000000 2.000000 1.984314 2.000000 2.000000 1.968627 0.000000 0.007843 0.031373 0.007843 0.000000 0.007843 0.007843 0.000000 1.050980 1.984314 1.968627 1.984314 2.000000 2.000000 1.984314 2.000000 0.007843 0.000000 0.000000 0.000000 0.007843 0.000000 0.023529 0.000000 0.000000 0.007843 0.015686 1.003922 2.000000 1.984314 0.000000 0.007843 0.007843 0.007843 0.000000 0.007843 0.000000 0.023529 0.000000 0.054902 0.000000 0.000000 0.000000 1.003922 1.968627 2.000000 0.000000 0.000000 0.007843
7 0.015686 0.000000 0.007843 0.015686 1.968627 2.000000 0.000000 0.015686 0.007843 0.015686 0.007843 0.000000 0.000000 0.023529 0.000000 0.000000 0.000000 0.015686 0.000000 0.000000 1.482353 1.992157 1.505882 0.007843 0.000000 0.000000 0.000000 0.023529 0.000000 0.015686 0.000000 0.039216 0.000000 0.015686 0.000000 0.533333 1.835294 0.486275 1.945098 1.992157 0.988235 0.996078 0.988235 0.007843 0.000000 0.000000 0.015686 0.000000 0.031373 0.000000 0.000000 0.988235 0.996078 0.070588 0.000000 1.003922 1.035294 0.988235 1.992157 1.011765 0.000000 0.000000 0.000000 0.007843 0.000000 0.000000 0.000000 0.964706 1.035294 0.000000 0.023529 0.000000 0.007843 0.023529 1.003922 1.043137 0.000000 0.023529 0.000000 0.000000 0.007843 0.000000 0.000000 1.011765 1.003922 0.023529 0.000000 0.031373 0.000000 0.000000 1.003922 1.011765 0.000000 0.000000 0.000000 0.015686 0.000000 0.007843 0.000000 0.023529 0.000000 0.000000 0.062745 0.000000 0.007843 0.015686 0.972549 1.011765 0.000000 0.007843 0.000000 0.007843 0.000000 0.015686 0.000000 0.000000 0.015686 0.000000 0.000000 0.023529 0.015686 0.000000 1.019608 1.003922 0.023529 0.000000 0.000000 0.000000 0.007843 0.007843 0.007843 0.007843 0.000000 0.000000 0.039216 0.000000 0.000000 0.023529 0.972549 1.003922 0.000000 0.000000 0.000000 0.000000 0.000000 0.000000 0.000000 0.000000 0.047059 0.000000 0.000000 0.000000 0.000000 0.000000 1.035294 0.988235 0.039216 0.015686 0.000000 0.015686 0.007843 0.023529 0.000000 0.015686 0.000000 1.019608 0.996078 1.035294 1.003922 0.964706 1.490196 1.490196 0.996078 0.964706 1.035294 0.956863 0.007843 0.000000 0.007843 0.015686 0.000000 1.011765 0.988235 1.003922 0.988235 1.027451 1.513725 1.490196 1.035294 1.011765 0.996078 1.035294 0.000000 0.000000 0.000000 0.000000 0.000000 0.015686 0.000000 0.000000 0.000000 0.031373 1.003922 1.035294 0.000000 0.000000 0.007843 0.000000 0.000000 0.039216 0.000000 0.015686 0.007843 0.000000 0.015686 0.007843 0.007843 0.015686 0.964706 1.011765 0.000000 0.023529 0.007843 0.007843 0.023529 0.000000 0.023529 0.000000 0.000000 0.007843 0.031373 0.000000 0.000000 0.000000 1.011765 0.988235 0.007843 0.007843 0.000000 0.000000 0.000000 0.015686 0.000000 0.007843 0.007843 0.000000 0.000000 0.015686 0.015686 0.000000 0.015686 0.007843 0.000000 0.015686 0.000000 0.000000
8 0.007843 0.007843 0.964706 2.000000 1.003922 1.019608 1.976471 2.000000 0.015686 0.007843 0.000000 0.000000 0.007843 0.000000 0.031373 0.000000 0.000000 0.517647 1.827451 0.478431 0.007843 0.000000 0.039216 1.984314 1.984314 0.980392 0.000000 0.031373 0.000000 0.023529 0.000000 0.031373 0.023529 0.980392 1.058824 0.000000 0.007843 0.000000 0.000000 0.039216 2.000000 2.000000 0.000000 0.023529 0.000000 0.039216 0.000000 0.007843 0.000000 0.964706 1.992157 0.000000 0.000000 0.023529 0.000000 0.478431 1.960784 1.568627 0.000000 0.000000 0.007843 0.007843 0.007843 0.000000 0.015686 0.000000 2.000000 2.000000 0.000000 0.000000 0.007843 1.992157 2.000000 1.043137 0.000000 0.023529 0.015686 0.000000 0.015686 0.007843 0.000000 0.023529 0.000000 1.466667 1.850980 1.521569 0.972549 2.000000 0.996078 0.964706 0.015686 0.000000 0.000000 0.000000 0.023529 0.000000 0.047059 0.000000 0.000000 0.031373 0.015686 1.498039 1.992157 1.992157 0.000000 0.054902 0.000000 0.023529 0.023529 0.000000 0.000000 0.023529 0.000000 0.007843 0.000000 0.007843 0.000000 0.517647 1.850980 2.000000 2.000000 0.972549 0.007843 0.000000 0.000000 0.023529 0.007843 0.000000 0.015686 0.000000 0.015686 0.000000 0.015686 1.035294 0.988235 0.000000 1.043137 2.000000 1.992157 0.000000 0.031373 0.000000 0.000000 0.000000 0.000000 0.023529 0.000000 0.047059 0.000000 0.980392 1.003922 0.023529 0.000000 0.007843 1.537255 1.811765 1.505882 0.000000 0.007843 0.000000 0.000000 0.000000 0.023529 0.000000 0.000000 1.011765 1.019608 0.000000 0.007843 0.000000 0.000000 0.062745 1.976471 1.003922 0.015686 0.039216 0.000000 0.000000 0.015686 0.000000 0.047059 0.956863 1.043137 0.000000 0.007843 0.000000 0.015686 0.000000 0.980392 1.003922 0.000000 0.000000 0.031373 0.000000 0.000000 0.031373 0.000000 1.003922 2.000000 0.031373 0.000000 0.000000 0.047059 0.478431 1.858824 0.486275 0.000000 0.031373 0.000000 0.062745 0.000000 0.000000 0.031373 0.007843 2.000000 1.976471 1.003922 1.011765 1.466667 1.866667 0.501961 0.000000 0.015686 0.000000 0.000000 0.000000 0.000000 0.007843 0.000000 0.007843 0.000000 1.019608 0.996078 1.011765 1.003922 0.000000 0.007843 0.023529 0.000000 0.023529 0.015686 0.000000 0.007843 0.007843 0.007843 0.007843 0.000000 0.000000 0.015686 0.000000 0.000000 0.015686 0.000000 0.000000 0.015686 0.000000
8 0.000000 0.000000 0.000000 0.023529 0.007843 0.000000 0.007843 0.000000 0.023529 0.000000 0.031373 0.015686 0.000000 0.015686 0.000000 0.000000 0.015686 0.007843 0.000000 0.000000 0.007843 0.031373 0.000000 0.031373 0.000000 0.023529 0.000000 0.000000 0.047059 0.000000 0.000000 0.031373 0.000000 0.000000 0.054902 0.023529 0.007843 0.000000 1.027451 0.980392 0.988235 0.949020 1.035294 0.941176 1.043137 0.000000 0.007843 0.000000 0.007843 0.000000 0.000000 0.000000 0.007843 1.027451 1.976471 1.019608 1.011765 1.019608 1.035294 0.996078 1.984314 0.988235 0.007843 0.023529 0.000000 0.047059 0.000000 0.000000 0.015686 0.964706 2.000000 0.015686 0.000000 0.007843 0.000000 0.000000 0.996078 1.027451 0.000000 0.007843 0.000000 0.000000 0.000000 0.023529 0.000000 0.015686 2.000000 1.003922 0.000000 0.023529 0.015686 0.494118 2.000000 1.474510 0.000000 0.000000 0.023529 0.000000 0.000000 0.047059 0.000000 0.015686 0.949020 2.000000 0.007843 0.000000 1.490196 1.843137 0.478431 0.015686 0.000000 0.015686 0.000000 0.015686 0.000000 0.000000 0.015686 0.015686 0.015686 2.000000 1.003922 1.992157 2.000000 0.007843 0.000000 0.015686 0.000000 0.000000 0.000000 0.000000 0.023529 0.007843 0.000000 0.007843 0.039216 1.960784 2.000000 1.976471 0.031373 0.000000 0.015686 0.000000 0.015686 0.000000 0.000000 0.015686 0.000000 0.015686 0.000000 0.000000 0.941176 2.000000 0.525490 1.780392 0.509804 0.000000 0.000000 0.039216 0.000000 0.007843 0.000000 0.015686 0.015686 0.000000 0.023529 0.023529 1.976471 0.980392 0.000000 0.533333 1.858824 1.505882 0.000000 0.000000 0.000000 0.031373 0.000000 0.000000 0.023529 0.015686 0.000000 0.996078 2.000000 0.031373 0.007843 0.000000 0.000000 1.976471 2.000000 0.000000 0.000000 0.000000 0.000000 0.031373 0.000000 0.000000 0.031373 0.000000 2.000000 1.952941 0.000000 0.039216 0.000000 0.000000 2.000000 1.043137 0.000000 0.007843 0.000000 0.000000 0.000000 0.007843 0.031373 0.000000 0.023529 2.000000 2.000000 0.972549 0.988235 1.019608 2.000000 0.964706 0.000000 0.000000 0.000000 0.015686 0.023529 0.000000 0.000000 0.007843 0.000000 0.015686 1.019608 1.019608 1.019608 1.027451 0.996078 0.039216 0.000000 0.023529 0.000000 0.000000 0.000000 0.015686 0.023529 0.000000 0.007843 0.000000 0.000000 0.015686 0.000000 0.000000 0.000000 0.007843 0.000000 0.007843
8 0.015686 0.000000 0.047059 0.000000 0.015686 0.007843 0.023529 0.000000 0.000000 0.000000 0.007843 0.000000 0.000000 0.000000 0.031373 0.000000 0.015686 0.007843 0.000000 0.007843 0.000000 0.000000 1.027451 0.000000 0.007843 0.000000 0.023529 0.000000 0.000000 0.023529 0.000000 0.015686 0.015686 0.000000 0.000000 0.000000 0.023529 2.000000 1.945098 2.000000 1.003922 0.000000 0.023529 0.000000 0.007843 0.000000 0.000000 0.007843 0.000000 0.000000 0.031373 0.000000 0.996078 2.000000 0.015686 0.988235 2.000000 1.976471 0.000000 0.015686 0.000000 0.031373 0.000000 0.000000 0.007843 0.000000 0.000000 0.007843 0.980392 1.019608 0.000000 0.007843 0.000000 2.000000 1.027451 0.023529 0.015686 0.000000 0.000000 0.054902 0.000000 0.007843 0.031373 0.000000 0.964706 0.996078 0.007843 0.023529 0.007843 0.980392 0.996078 0.000000 0.015686 0.000000 0.023529 0.000000 0.007843 0.000000 0.000000 0.000000 1.035294 1.019608 0.015686 0.000000 0.000000 0.980392 1.035294 0.000000 0.000000 0.023529 0.007843 0.000000 0.015686 0.000000 0.007843 0.007843 0.972549 2.000000 0.007843 0.007843 0.007843 2.000000 1.984314 0.000000 0.023529 0.000000 0.000000 0.015686 0.015686 0.007843 0.000000 0.000000 0.031373 1.992157 1.984314 0.000000 1.003922 2.000000 0.000000 0.000000 0.000000 0.054902 0.000000 0.000000 0.000000 0.000000 0.062745 0.000000 0.000000 0.000000 2.000000 1.984314 1.984314 1.019608 0.007843 0.023529 0.000000 0.000000 0.000000 0.062745 0.007843 0.000000 0.000000 0.015686 0.000000 0.000000 0.000000 1.019608 1.992157 1.976471 0.000000 0.023529 0.000000 0.023529 0.007843 0.000000 0.000000 0.039216 0.000000 0.070588 0.000000 0.031373 0.000000 0.972549 2.000000 1.513725 1.866667 1.490196 0.000000 0.023529 0.031373 0.000000 0.023529 0.000000 0.007843 0.000000 0.000000 0.015686 0.007843 1.011765 1.003922 0.000000 0.000000 2.000000 1.035294 0.000000 0.000000 0.000000 0.000000 0.007843 0.015686 0.000000 0.000000 0.000000 0.007843 0.996078 0.996078 0.007843 0.000000 0.988235 0.972549 0.015686 0.047059 0.000000 0.047059 0.000000 0.007843 0.023529 0.000000 0.015686 0.007843 0.956863 2.000000 0.980392 1.545098 1.827451 0.525490 0.000000 0.007843 0.000000 0.000000 0.023529 0.000000 0.007843 0.000000 0.015686 0.015686 0.007843 1.003922 1.011765 1.011765 0.000000 0.000000 0.015686 0.000000 0.000000
9 0.000000 0.000000 0.007843 0.000000 0.007843 0.000000 0.015686 0.000000 0.000000 0.000000 0.031373 0.000000 0.000000 0.000000 0.023529 0.000000 0.000000 0.039216 0.000000 0.015686 0.000000 0.000000 0.000000 0.023529 0.007843 0.023529 0.000000 0.015686 0.023529 0.015686 0.000000 0.023529 0.007843 0.000000 0.039216 0.949020 1.027451 0.988235 0.980392 0.000000 0.000000 0.007843 0.000000 0.000000 0.000000 0.000000 0.007843 0.000000 0.000000 0.000000 2.000000 1.992157 1.003922 1.011765 1.545098 1.866667 1.505882 0.988235 0.000000 0.031373 0.015686 0.000000 0.039216 0.000000 0.031373 0.964706 1.976471 0.000000 0.015686 0.000000 0.000000 0.000000 0.980392 2.000000 2.000000 0.000000 0.000000 0.007843 0.000000 0.023529 0.000000 1.019608 1.019608 0.000000 0.031373 0.000000 0.015686 0.000000 0.015686 0.000000 2.000000 1.976471 0.015686 0.000000 0.023529 0.007843 0.007843 0.964706 1.035294 0.015686 0.007843 0.007843 0.000000 0.015686 0.007843 0.000000 1.960784 2.000000 2.000000 0.031373 0.000000 0.007843 0.000000 1.019608 0.988235 0.023529 0.000000 0.000000 0.015686 0.000000 0.000000 0.000000 0.980392 1.066667 1.952941 1.011765 0.007843 0.000000 0.007843 0.988235 1.035294 0.000000 0.000000 0.015686 0.000000 0.015686 0.007843 0.000000 1.003922 0.980392 2.000000 1.003922 0.000000 0.000000 0.007843 0.972549 1.992157 0.015686 0.000000 0.007843 0.000000 0.000000 0.000000 0.023529 1.003922 2.000000 1.984314 0.031373 0.000000 0.007843 0.000000 0.039216 1.498039 1.835294 1.505882 0.996078 1.003922 0.988235 1.027451 0.980392 2.000000 1.992157 1.019608 0.000000 0.007843 0.007843 0.023529 0.000000 0.000000 0.000000 1.019608 0.996078 1.066667 1.003922 0.972549 1.019608 1.976471 1.992157 0.000000 0.039216 0.000000 0.023529 0.000000 0.007843 0.015686 0.007843 0.000000 0.039216 0.000000 0.000000 0.023529 0.031373 0.972549 1.011765 0.007843 0.000000 0.023529 0.000000 0.000000 0.031373 0.000000 0.054902 0.000000 0.007843 0.000000 0.023529 0.000000 0.000000 2.000000 1.011765 0.023529 0.000000 0.015686 0.000000 0.007843 0.000000 0.023529 0.972549 1.019608 1.490196 1.498039 1.482353 1.780392 1.890196 1.513725 0.000000 0.000000 0.015686 0.000000 0.031373 0.000000 0.007843 0.000000 0.996078 1.019608 1.505882 1.529412 1.513725 1.498039 1.019608 0.007843 0.023529 0.000000 0.023529 0.000000 0.000000
9 0.015686 0.000000 0.031373 0.000000 0.007843 0.000000 0.501961 1.858824 1.498039 1.011765 1.011765 1.019608 1.992157 1.992157 0.000000 0.023529 0.000000 0.000000 0.007843 0.007843 0.000000 0.000000 1.960784 1.019608 0.023529 0.000000 0.007843 0.000000 0.039216 1.984314 1.035294 0.000000 0.000000 0.047059 0.000000 0.000000 0.007843 1.027451 2.000000 0.000000 0.007843 0.000000 0.015686 0.031373 0.000000 1.976471 0.988235 0.023529 0.000000 0.000000 0.000000 0.023529 0.015686 0.949020 1.011765 0.007843 0.000000 0.000000 0.007843 0.000000 1.019608 2.000000 1.992157 0.000000 0.000000 0.000000 0.039216 0.000000 0.000000 2.000000 1.011765 0.000000 0.000000 0.070588 0.000000 0.000000 0.000000 2.000000 2.000000 0.047059 0.000000 0.000000 0.000000 0.000000 1.027451 1.937255 0.070588 0.000000 0.007843 0.000000 0.000000 0.031373 0.000000 2.000000 2.000000 0.000000 0.000000 0.047059 0.031373 0.000000 0.988235 1.035294 0.000000 0.000000 0.000000 0.000000 0.015686 0.000000 0.000000 1.992157 1.992157 0.031373 0.007843 0.000000 0.000000 0.000000 0.996078 1.976471 0.015686 0.000000 0.000000 0.000000 0.000000 0.000000 0.980392 2.000000 1.968627 0.015686 0.000000 0.023529 0.000000 0.000000 0.007843 1.968627 2.000000 1.003922 0.980392 0.988235 1.019608 0.949020 2.000000 0.996078 2.000000 1.011765 0.007843 0.000000 0.047059 0.000000 0.007843 0.039216 1.011765 0.996078 1.011765 1.019608 1.011765 1.035294 0.964706 0.000000 0.996078 1.003922 0.000000 0.062745 0.000000 0.000000 0.000000 0.015686 0.000000 0.007843 0.000000 0.015686 0.000000 0.007843 0.039216 0.007843 1.003922 0.988235 0.015686 0.000000 0.031373 0.023529 0.023529 0.000000 0.007843 0.023529 0.000000 0.023529 0.015686 0.015686 0.000000 0.015686 1.011765 1.035294 0.000000 0.000000 0.000000 0.007843 0.000000 0.039216 0.007843 0.000000 0.023529 0.000000 0.000000 0.000000 0.000000 0.015686 0.980392 0.996078 0.000000 0.000000 0.000000 0.031373 0.000000 0.015686 0.000000 0.015686 0.007843 0.000000 0.000000 0.007843 0.031373 0.000000 0.980392 1.027451 0.000000 0.062745 0.007843 0.000000 0.000000 0.000000 0.023529 0.000000 0.015686 0.000000 0.039216 0.039216 0.941176 1.043137 1.984314 1.019608 0.000000 0.000000 0.000000 0.007843 0.988235 2.000000 0.972549 1.027451 0.972549 1.019608 0.996078 1.992157 2.000000 1.011765 1.003922 0.007843
9 0.023529 0.000000 0.015686 0.015686 0.015686 0.000000 1.035294 0.988235 0.996078 0.000000 0.023529 0.000000 0.007843 0.000000 0.023529 0.007843 0.000000 0.000000 0.000000 0.000000 0.000000 2.000000 1.976471 0.980392 2.000000 1.984314 0.996078 0.000000 0.000000 0.000000 0.000000 0.000000 0.000000 0.015686 0.007843 0.494118 1.843137 1.529412 0.000000 0.031373 0.000000 1.027451 2.000000 1.968627 2.000000 0.007843 0.000000 0.007843 0.015686 0.000000 0.023529 1.992157 1.035294 0.000000 0.000000 0.031373 0.000000 0.000000 0.031373 2.000000 2.000000 0.039216 0.000000 0.000000 0.015686 0.000000 1.019608 1.968627 0.000000 0.031373 0.023529 0.000000 0.015686 0.000000 0.031373 1.968627 1.984314 0.000000 0.007843 0.000000 0.000000 0.000000 0.972549 1.050980 0.039216 0.000000 0.000000 0.007843 0.000000 0.000000 0.494118 2.000000 1.960784 0.023529 0.047059 0.000000 0.015686 0.000000 1.019608 1.945098 0.000000 0.023529 0.007843 0.000000 0.015686 0.031373 1.945098 2.000000 1.043137 0.000000 0.000000 0.023529 0.000000 0.015686 0.000000 2.000000 1.984314 0.988235 1.019608 0.988235 1.474510 1.843137 1.545098 1.011765 0.988235 0.000000 0.023529 0.000000 0.000000 0.000000 0.031373 0.000000 1.011765 1.019608 0.988235 0.988235 1.019608 0.000000 0.000000 0.996078 1.027451 0.000000 0.000000 0.000000 0.000000 0.000000 0.000000 0.023529 0.007843 0.015686 0.007843 0.039216 0.000000 0.007843 0.000000 1.035294 0.980392 0.000000 0.015686 0.015686 0.007843 0.023529 0.000000 0.015686 0.000000 0.000000 0.007843 0.000000 0.015686 0.007843 0.000000 0.964706 1.027451 0.000000 0.031373 0.000000 0.000000 0.000000 0.000000 0.039216 0.000000 0.031373 0.023529 0.000000 0.000000 0.031373 0.000000 1.011765 1.035294 0.000000 0.031373 0.000000 0.000000 0.039216 0.007843 0.000000 0.015686 0.000000 0.000000 0.031373 0.023529 0.000000 0.015686 1.992157 0.980392 0.000000 0.000000 0.000000 0.007843 0.000000 0.000000 0.007843 0.000000 0.007843 0.031373 0.000000 0.000000 1.003922 1.984314 1.992157 0.007843 0.023529 0.000000 0.007843 0.015686 0.000000 0.000000 0.023529 0.980392 2.000000 0.988235 1.490196 1.913725 1.513725 0.988235 0.039216 0.000000 0.031373 0.000000 0.023529 0.000000 0.000000 0.015686 0.000000 0.015686 0.988235 1.019608 1.011765 0.000000 0.000000 0.007843 0.000000 0.031373 0.000000 0.015686 0.000000
-1
